<?xml version="1.0"?>
<opencv_storage>
<opencv_ml_svm>
  <format>3</format>
  <svmType>C_SVC</svmType>
  <kernel>
    <type>LINEAR</type></kernel>
  <C>1.</C>
  <term_criteria><iterations>100</iterations></term_criteria>
  <var_count>136</var_count>
  <class_count>3</class_count>
  <class_labels type_id="opencv-matrix">
    <rows>3</rows>
    <cols>1</cols>
    <dt>i</dt>
    <data>
      170 250 300</data></class_labels>
  <sv_total>3</sv_total>
  <support_vectors>
    <_>
      -2.05741520e-03 4.77567594e-03 -1.27033086e-03 4.63078916e-03
      6.22151769e-04 4.75722458e-03 1.50143332e-03 3.42308474e-03
      2.19994830e-03 2.63747037e-03 1.03499484e-03 1.46978465e-03
      1.25569594e-03 1.97991103e-04 1.93283218e-03 -2.02468876e-03
      1.39057846e-03 -3.24722612e-03 7.67862482e-04 -3.83023615e-03
      -6.65120839e-04 -2.75977375e-03 -1.70309620e-03 -1.95849012e-03
      -3.69879953e-03 -1.56831404e-03 -4.14852053e-03 -8.73285288e-04
      -4.02176380e-03 -7.84914373e-05 -4.58164793e-03 1.42284995e-03
      -4.28903336e-03 1.58247107e-03 1.03279242e-04 -1.29740010e-03
      -6.51779119e-04 -5.28183009e-04 -1.05092011e-03 -1.32468657e-03
      -1.61144254e-03 -1.60522631e-03 -1.10774348e-03 -2.67973542e-03
      -1.94048835e-03 -3.42234387e-03 -1.91524054e-03 -3.72239086e-03
      -1.95145665e-03 -4.48270515e-03 -2.31874175e-03 -5.78095764e-03
      -2.01364630e-03 -6.84596645e-03 -7.38957955e-04 -2.39820383e-03
      -1.66165031e-04 -4.16364893e-03 6.46572968e-04 -6.28435798e-03
      9.15961748e-04 -7.14789703e-03 3.53608187e-03 -4.97405534e-04
      3.11699696e-03 -2.16006720e-03 1.49929128e-03 -3.45666148e-03
      1.06958405e-03 -2.54862383e-03 4.62951684e-05 -2.20312201e-03
      1.83041397e-04 2.00303365e-03 2.91655465e-06 2.17798422e-03
      -3.38027967e-05 1.33629760e-03 -5.18983463e-04 -1.74033441e-04
      1.74250061e-04 2.07996718e-03 1.13661818e-05 2.45104660e-03
      -2.86751369e-04 -1.71781180e-03 -1.88250982e-04 -1.01430609e-03
      -6.83151127e-04 -1.01430609e-03 -1.03803561e-03 -1.72722840e-03
      -9.85109829e-04 -3.57862969e-04 -8.46953189e-04 -6.97871903e-04
      6.74095005e-03 5.66039840e-03 6.80739153e-03 6.89170510e-03
      4.27489122e-03 5.95967099e-03 1.82344695e-03 5.35772601e-03
      -9.28869180e-04 5.51922061e-03 -3.20329214e-03 4.96529322e-03
      -2.74974410e-03 3.86697683e-03 -2.99656345e-03 -3.94659862e-03
      2.10454818e-04 -7.51296338e-03 3.47226672e-03 -8.05042125e-03
      6.03870954e-03 -5.90030523e-03 7.30246631e-03 -1.73174567e-03
      6.62481040e-03 5.28359972e-03 4.98292549e-03 5.85574517e-03
      2.36427668e-03 5.31636737e-03 -6.57833763e-04 4.75835660e-03
      -3.15785129e-03 3.76467896e-03 -7.25840917e-04 -4.59317211e-03
      2.50514108e-03 -5.21786511e-03 5.17434627e-03 -3.97105468e-03</_>
    <_>
      -1.49564829e-03 -1.91953790e-04 -1.51017902e-03 2.96482431e-05
      -1.20469998e-03 -2.40708498e-04 -1.01351633e-03 -3.60170932e-04
      -9.25948960e-04 -5.94434794e-04 -3.91187845e-04 -2.02856306e-03
      -1.17443786e-04 -3.13615985e-03 8.96276106e-05 -3.88197694e-03
      3.41809704e-04 -4.38431604e-03 -6.58788167e-06 -4.13782103e-03
      6.92300906e-04 -3.54825589e-03 1.80844706e-03 -2.39303568e-03
      2.75345962e-03 -1.52224046e-03 3.11206770e-03 -1.17935077e-03
      3.25026014e-03 -1.21362577e-03 2.78787920e-03 -1.19026052e-03
      2.51482520e-03 -1.69829384e-03 -2.74578785e-03 1.17270625e-03
      -2.77551659e-03 7.02612393e-04 -1.63731759e-03 1.01376488e-03
      -1.01298362e-03 1.17452838e-03 -7.32228451e-04 1.92720047e-03
      -6.59654557e-04 1.21147220e-03 -7.64195356e-05 2.21839669e-04
      7.63818098e-04 -1.12505036e-03 2.11792509e-03 -2.02926574e-03
      3.43507878e-03 -2.11614231e-03 -5.99346356e-04 1.34735345e-03
      -3.92967748e-04 2.39897985e-03 -4.40591190e-04 3.38593894e-03
      -8.48832889e-04 4.05589025e-03 -1.13295403e-03 4.04069480e-03
      -4.18381504e-04 4.15383279e-03 -7.17494171e-04 3.90434614e-03
      -1.35109134e-04 4.22802474e-03 7.51237094e-05 4.40784311e-03
      -1.97473471e-03 1.28568662e-03 -1.39235135e-03 1.35150924e-03
      -8.95688718e-04 1.14012137e-03 -3.65933141e-04 1.38729753e-03
      -5.31057187e-04 1.93273660e-03 -1.32567820e-03 2.11254973e-03
      2.29783691e-05 6.71568327e-04 9.82033438e-04 1.07385160e-04
      1.86037249e-03 -9.44779458e-05 2.40917155e-03 -2.56397121e-04
      1.92588998e-03 7.02657562e-04 1.09065557e-03 8.77951796e-04
      -6.17932936e-04 -7.00949633e-04 2.52883328e-04 3.21972859e-03
      -5.04100404e-04 4.16990416e-03 -1.09416142e-03 4.22253646e-03
      -1.42687676e-03 4.21752781e-03 -1.35384186e-03 3.86327109e-03
      9.14002187e-04 4.63128148e-04 -1.53365487e-03 -3.80182802e-03
      -1.47535070e-03 -5.80330798e-03 -8.82777211e-04 -6.02873974e-03
      -2.26042714e-04 -6.05731364e-03 2.71934055e-04 -4.60327836e-03
      -2.88399024e-04 -4.41938784e-04 -3.28807539e-04 4.73324256e-03
      -1.09416142e-03 5.02082426e-03 -1.04520074e-03 4.98272618e-03
      2.07797828e-04 6.74515555e-04 -1.54502329e-03 -5.76253748e-03
      -8.82777211e-04 -6.16326276e-03 -4.10862180e-04 -6.02154806e-03</_>
    <_>
      1.01272052e-03 -9.74793278e-04 4.48944367e-04 -1.29949383e-03
      -1.26271698e-04 -1.51953974e-03 -6.53611205e-04 -1.81013334e-03
      -9.36865050e-04 -1.96911907e-03 -5.80951339e-04 -2.31448840e-03
      -1.00008980e-03 -1.99294440e-03 -1.53747865e-03 -1.15573464e-03
      -1.37673283e-03 -5.87690272e-04 -6.06560498e-04 -2.67525873e-04
      4.19785240e-04 -3.10076663e-04 1.65869016e-03 7.85206521e-06
      2.77564419e-03 4.83645388e-04 3.22727812e-03 7.89178652e-04
      3.21374345e-03 4.91455488e-04 2.93772086e-03 5.00551076e-04
      2.70317169e-03 3.49614653e-04 -4.41877637e-04 1.52682827e-03
      -6.07030408e-04 1.24557293e-03 -2.64589016e-05 1.33386499e-03
      1.54704365e-04 1.42546021e-03 4.66427475e-04 1.76849042e-03
      8.38393986e-04 2.09412095e-03 1.17948954e-03 1.67137501e-03
      1.46920315e-03 1.38851861e-03 1.98225095e-03 1.32069644e-03
      2.40199338e-03 1.31787849e-03 1.86919031e-04 1.85205543e-03
      -1.94426539e-05 2.88034230e-03 -2.90072785e-04 3.97661189e-03
      -6.48468849e-04 4.64759674e-03 -1.86571945e-03 2.63564498e-03
      -1.11313420e-03 3.00499634e-03 -7.57940463e-04 3.51200998e-03
      -1.18226410e-04 3.27586778e-03 5.72399469e-04 3.18570947e-03
      -5.55960869e-04 9.35679476e-04 -2.02848343e-04 7.90153397e-04
      -1.17372338e-05 9.06282512e-04 1.99610164e-04 1.27128093e-03
      2.65887084e-05 9.37919365e-04 -3.01229360e-04 8.67347000e-04
      6.95567869e-04 1.51496450e-03 1.08056306e-03 1.00261101e-03
      1.37228891e-03 9.44286119e-04 1.79218350e-03 9.90588218e-04
      1.47026917e-03 9.63514845e-04 9.34038020e-04 1.19874091e-03
      -4.08546254e-03 -3.40878381e-03 -2.70857662e-03 -2.57941079e-04
      -2.24442361e-03 1.25579687e-03 -1.47569866e-03 1.72918045e-03
      -5.67451993e-04 1.64390018e-03 5.65825962e-04 1.06250145e-03
      2.81143514e-03 -1.73247978e-03 3.46622139e-04 -2.00875732e-03
      -1.03622267e-03 -2.25393218e-03 -1.85563788e-03 -2.41377275e-03
      -2.60667619e-03 -2.81174784e-03 -2.89949216e-03 -3.32553429e-03
      -3.87941650e-03 -2.88863131e-03 -2.27805413e-03 1.21496851e-03
      -1.53805397e-03 1.76341005e-03 -5.91134361e-04 1.62122189e-03
      2.50658859e-03 -1.32662419e-03 -7.55665766e-04 -2.30792374e-03
      -1.48030347e-03 -2.43092142e-03 -2.39086011e-03 -2.91102310e-03</_></support_vectors>
  <uncompressed_sv_total>20</uncompressed_sv_total>
  <uncompressed_support_vectors>
    <_>
      4.85436916e+00 9.32038879e+01 5.82524300e+00 1.36893204e+02
      1.45631065e+01 1.80582535e+02 2.52427197e+01 2.21359222e+02
      3.88349533e+01 2.62135925e+02 5.92233009e+01 2.98058258e+02
      8.64077682e+01 3.26213593e+02 1.19417480e+02 3.45631073e+02
      1.57281555e+02 3.50485443e+02 1.92233017e+02 3.41747589e+02
      2.23300980e+02 3.19417480e+02 2.49514572e+02 2.90291260e+02
      2.70873779e+02 2.53398071e+02 2.87378662e+02 2.14563110e+02
      2.99029144e+02 1.74757294e+02 3.07766998e+02 1.33980591e+02
      3.11650482e+02 9.02912674e+01 1.84466019e+01 5.04854393e+01
      3.88349533e+01 2.71844673e+01 7.08737869e+01 2.03883495e+01
      1.02912621e+02 2.62135925e+01 1.33009720e+02 3.98058281e+01
      1.77669907e+02 3.88349533e+01 2.07766998e+02 2.62135925e+01
      2.39805832e+02 2.13592243e+01 2.70873779e+02 2.81553402e+01
      2.90291260e+02 5.14563103e+01 1.56310684e+02 8.25242767e+01
      1.55339813e+02 1.13592239e+02 1.55339813e+02 1.42718445e+02
      1.54368942e+02 1.73786407e+02 1.19417480e+02 200. 1.36893204e+02
      2.04854370e+02 1.55339813e+02 2.08737869e+02 1.74757294e+02
      2.04854370e+02 1.92233017e+02 200. 4.85436897e+01 9.02912674e+01
      6.69902954e+01 7.86407776e+01 8.93203888e+01 7.86407776e+01
      1.08737869e+02 9.51456375e+01 8.83495178e+01 9.90291290e+01
      6.50485458e+01 9.90291290e+01 2.01941757e+02 9.41747589e+01
      2.21359222e+02 7.76699066e+01 2.43689331e+02 7.76699066e+01
      2.61165070e+02 8.93203888e+01 2.44660202e+02 9.80582581e+01
      2.23300980e+02 9.80582581e+01 1.03883499e+02 2.67961182e+02
      1.23300972e+02 2.52427185e+02 1.42718445e+02 2.42718460e+02
      1.56310684e+02 2.46601944e+02 1.70873795e+02 2.42718460e+02
      1.89320389e+02 2.52427185e+02 2.06796127e+02 2.68932037e+02
      1.89320389e+02 2.86407776e+02 1.71844666e+02 2.95145630e+02
      1.55339813e+02 2.96116516e+02 1.40776703e+02 2.95145630e+02
      1.21359230e+02 2.86407776e+02 1.13592239e+02 2.66990295e+02
      1.42718445e+02 2.62135925e+02 1.56310684e+02 2.63106812e+02
      1.70873795e+02 2.61165070e+02 1.96116516e+02 2.68932037e+02
      1.70873795e+02 2.68932037e+02 1.55339813e+02 2.71844666e+02
      1.41747574e+02 2.69902924e+02</_>
    <_>
      7.76699114e+00 9.51456375e+01 8.73786354e+00 1.38834961e+02
      1.74757290e+01 1.81553406e+02 2.91262150e+01 2.23300980e+02
      4.27184486e+01 2.64077667e+02 6.40776749e+01 2.99029144e+02
      9.12621384e+01 3.26213593e+02 1.24271851e+02 3.46601959e+02
      1.61165054e+02 3.52427185e+02 1.97087387e+02 3.43689331e+02
      2.26213593e+02 3.21359222e+02 2.52427185e+02 2.93203888e+02
      2.74757294e+02 2.57281555e+02 2.91262146e+02 2.18446609e+02
      3.02912628e+02 1.79611649e+02 3.11650482e+02 1.37864075e+02
      3.13592255e+02 9.41747589e+01 2.23300972e+01 5.24271851e+01
      4.36893234e+01 2.91262150e+01 7.47572861e+01 2.33009720e+01
      1.07766991e+02 2.91262150e+01 1.36893204e+02 4.17475739e+01
      1.82524277e+02 4.07766991e+01 2.12621368e+02 2.91262150e+01
      2.43689331e+02 2.42718449e+01 2.74757294e+02 3.20388374e+01
      2.93203888e+02 5.53398056e+01 1.61165054e+02 8.64077682e+01
      1.60194183e+02 1.16504860e+02 1.60194183e+02 1.45631073e+02
      1.59223312e+02 1.76699036e+02 1.24271851e+02 2.00970886e+02
      1.41747574e+02 2.06796127e+02 1.59223312e+02 2.10679611e+02
      1.77669907e+02 2.06796127e+02 1.95145630e+02 2.01941757e+02
      5.24271851e+01 9.32038879e+01 7.18446655e+01 8.25242767e+01
      9.51456375e+01 8.25242767e+01 1.13592239e+02 9.90291290e+01
      9.32038879e+01 1.02912621e+02 6.99029160e+01 1.02912621e+02
      2.05825241e+02 9.90291290e+01 2.26213593e+02 8.34951477e+01
      2.47572815e+02 8.34951477e+01 2.65048553e+02 9.51456375e+01
      2.49514572e+02 1.03883499e+02 2.27184479e+02 1.03883499e+02
      1.10679611e+02 2.68932037e+02 1.29126221e+02 2.51456314e+02
      1.48543686e+02 2.40776703e+02 1.61165054e+02 2.45631073e+02
      1.74757294e+02 2.41747574e+02 1.92233017e+02 2.53398071e+02
      2.09708740e+02 2.70873779e+02 1.93203888e+02 2.86407776e+02
      1.74757294e+02 2.95145630e+02 1.60194183e+02 2.97087372e+02
      1.46601944e+02 2.95145630e+02 1.28155350e+02 2.86407776e+02
      1.21359230e+02 2.66990295e+02 1.48543686e+02 2.62135925e+02
      1.61165054e+02 2.64077667e+02 1.74757294e+02 2.62135925e+02
      1.99029129e+02 2.69902924e+02 1.73786407e+02 2.68932037e+02
      1.60194183e+02 2.70873779e+02 1.47572815e+02 2.68932037e+02</_>
    <_>
      9.67741966e+00 7.54838715e+01 1.16129036e+01 1.17096779e+02
      1.93548393e+01 1.59677429e+02 2.90322590e+01 2.00322586e+02
      4.06451607e+01 2.41935486e+02 5.90322609e+01 2.76774200e+02
      8.61290359e+01 3.04838715e+02 120. 3.24193573e+02 1.60645172e+02
      330. 2.00322586e+02 3.23225830e+02 2.34193558e+02 3.01935486e+02
      2.61290344e+02 2.73870972e+02 2.81612915e+02 2.38064529e+02
      2.94193542e+02 1.98387100e+02 3.02903229e+02 1.58709686e+02
      3.10645172e+02 1.17096779e+02 3.12580658e+02 7.54838715e+01
      2.51612911e+01 2.51612911e+01 4.64516144e+01 2.90322590e+00
      7.83871002e+01 -2.90322590e+00 1.10322586e+02 3.87096810e+00
      1.38387100e+02 1.83870964e+01 1.84838715e+02 1.83870964e+01
      2.13870972e+02 4.83870983e+00 2.44838715e+02 0. 2.75806458e+02
      6.77419376e+00 2.97096771e+02 2.90322590e+01 1.62580643e+02
      5.90322609e+01 1.62580643e+02 8.90322571e+01 1.62580643e+02
      1.18064522e+02 1.62580643e+02 1.48064514e+02 1.25806458e+02
      1.72258072e+02 1.44193558e+02 1.79032257e+02 1.61612915e+02
      1.83870972e+02 180. 1.79032257e+02 1.97419357e+02 1.74193558e+02
      5.51612930e+01 6.48387146e+01 7.35483856e+01 5.22580643e+01
      9.58064575e+01 5.32258072e+01 1.15161293e+02 7.06451645e+01
      9.48387146e+01 7.45161285e+01 7.16129074e+01 7.45161285e+01
      2.07096786e+02 7.06451645e+01 2.26451614e+02 5.41935501e+01
      2.48709686e+02 5.41935501e+01 2.66129028e+02 6.58064499e+01
      2.50645172e+02 7.54838715e+01 2.28387100e+02 7.54838715e+01
      1.07419357e+02 2.41935486e+02 1.27741936e+02 2.25483871e+02
      1.48064514e+02 2.16774200e+02 1.60645172e+02 2.20645172e+02
      1.75161301e+02 2.16774200e+02 1.93548386e+02 2.27419357e+02
      2.11935486e+02 2.44838715e+02 1.93548386e+02 2.60322601e+02
      1.74193558e+02 2.66129028e+02 1.59677429e+02 2.68064514e+02
      1.45161301e+02 2.66129028e+02 1.25806458e+02 2.59354858e+02
      1.17096779e+02 2.40967743e+02 1.48064514e+02 2.37096786e+02
      1.60645172e+02 2.38064529e+02 1.75161301e+02 2.37096786e+02
      2.01290329e+02 2.43870972e+02 1.74193558e+02 2.41935486e+02
      1.59677429e+02 2.43870972e+02 1.46129044e+02 2.42903229e+02</_>
    <_>
      2.25806446e+01 7.17741928e+01 2.41935482e+01 1.07258064e+02
      3.06451607e+01 1.42741928e+02 3.70967751e+01 1.77419357e+02
      4.67741928e+01 2.12096771e+02 6.12903214e+01 2.45161285e+02
      8.30645142e+01 2.70967743e+02 1.10483871e+02 2.90322571e+02
      1.45967743e+02 2.97580658e+02 1.80645157e+02 2.91935486e+02
      2.07258057e+02 2.70967743e+02 2.28225800e+02 2.45967743e+02
      2.45161285e+02 2.15322586e+02 2.56451599e+02 1.81451614e+02
      2.63709686e+02 1.47580643e+02 2.70161285e+02 1.12903221e+02
      2.70967743e+02 7.90322571e+01 3.79032249e+01 3.87096786e+01
      5.56451607e+01 2.09677410e+01 8.14516144e+01 1.69354839e+01
      1.08064514e+02 2.33870964e+01 1.31451614e+02 3.46774178e+01
      1.66129028e+02 3.54838715e+01 1.89516129e+02 2.41935482e+01
      2.15322586e+02 1.93548393e+01 2.40322586e+02 2.41935482e+01
      2.58064514e+02 4.19354820e+01 1.48387100e+02 6.85483856e+01
      1.48387100e+02 9.35483856e+01 1.47580643e+02 1.16935486e+02
      1.47580643e+02 1.41935486e+02 1.18548386e+02 1.62903229e+02
      1.33064514e+02 1.68548386e+02 1.48387100e+02 1.72580643e+02
      1.63709671e+02 1.69354843e+02 1.78225800e+02 1.64516129e+02
      6.20967751e+01 7.33870926e+01 7.74193573e+01 6.45161285e+01
      9.51612930e+01 6.53225784e+01 1.10483871e+02 7.74193573e+01
      9.43548355e+01 8.06451569e+01 7.66128998e+01 8.06451569e+01
      1.87096771e+02 7.82258072e+01 2.03225800e+02 6.77419357e+01
      2.20967743e+02 6.77419357e+01 2.34677414e+02 7.66128998e+01
      2.20967743e+02 8.30645142e+01 2.04032257e+02 8.30645142e+01
      1.02419357e+02 2.17741928e+02 1.18548386e+02 2.05645157e+02
      1.35483871e+02 1.97580643e+02 1.47580643e+02 2.02419357e+02
      1.60483871e+02 1.98387100e+02 1.76612900e+02 2.06451614e+02
      1.91129028e+02 2.20967743e+02 1.76612900e+02 2.37096771e+02
      1.61290314e+02 2.43548386e+02 1.46774185e+02 2.45161285e+02
      1.33870972e+02 2.42741928e+02 1.16935486e+02 2.35483871e+02
      1.11290321e+02 2.17741928e+02 1.35483871e+02 2.14516129e+02
      1.47580643e+02 2.16935486e+02 1.60483871e+02 2.15322586e+02
      1.81451614e+02 2.20161285e+02 1.60483871e+02 2.23387100e+02
      1.46774185e+02 225. 1.34677414e+02 2.23387100e+02</_>
    <_>
      -1.35483875e+01 6.96774216e+01 -1.25806456e+01 1.12258064e+02
      -4.83870983e+00 1.53870972e+02 4.83870983e+00 1.95483871e+02
      1.74193554e+01 2.37096786e+02 3.58064537e+01 2.73870972e+02
      6.29032288e+01 3.02903229e+02 9.67741928e+01 3.25161285e+02
      1.37419357e+02 3.30967743e+02 1.75161301e+02 3.23225830e+02
      2.06129044e+02 2.99032257e+02 2.30322586e+02 270. 2.50645172e+02
      2.32258072e+02 2.65161285e+02 1.92580658e+02 2.76774200e+02
      1.51935486e+02 2.85483887e+02 1.11290329e+02 2.87419373e+02
      6.87096786e+01 4.83870983e+00 2.70967751e+01 2.51612911e+01
      5.80645180e+00 5.61290321e+01 0. 8.80645218e+01 5.80645180e+00
      1.16129036e+02 1.93548393e+01 1.61612915e+02 1.93548393e+01
      1.88709686e+02 7.74193621e+00 2.19677429e+02 1.93548405e+00
      2.49677429e+02 7.74193621e+00 2.70967743e+02 2.90322590e+01
      1.39354843e+02 6.09677429e+01 1.39354843e+02 9.19354858e+01
      1.39354843e+02 1.20967743e+02 1.38387100e+02 1.51935486e+02
      1.03548393e+02 1.76129044e+02 1.20967743e+02 1.81935486e+02
      1.38387100e+02 1.85806458e+02 1.56774200e+02 1.82903229e+02
      1.74193558e+02 1.77096786e+02 3.48387108e+01 6.77419357e+01
      5.32258072e+01 5.70967751e+01 7.54838715e+01 5.70967751e+01
      9.38709717e+01 7.35483856e+01 7.35483856e+01 7.83871002e+01
      5.12903252e+01 7.74193573e+01 1.84838715e+02 7.35483856e+01
      2.03225815e+02 5.90322609e+01 2.25483871e+02 5.80645180e+01
      2.41935486e+02 6.96774216e+01 2.26451614e+02 7.83871002e+01
      2.05161301e+02 7.83871002e+01 8.51612930e+01 2.42903229e+02
      1.04516129e+02 2.28387100e+02 1.24838715e+02 2.18709686e+02
      1.38387100e+02 2.23548401e+02 1.52903229e+02 2.18709686e+02
      1.71290329e+02 2.28387100e+02 1.89677429e+02 2.45806458e+02
      1.72258072e+02 2.66129028e+02 1.53870972e+02 2.75806458e+02
      1.38387100e+02 2.77741943e+02 1.22903229e+02 2.75806458e+02
      1.02580650e+02 2.65161285e+02 9.58064575e+01 2.42903229e+02
      1.24838715e+02 2.39032272e+02 1.38387100e+02 2.40967743e+02
      1.52903229e+02 240. 1.79032257e+02 2.45806458e+02 1.51935486e+02
      2.49677429e+02 1.38387100e+02 2.51612915e+02 1.23870972e+02
      2.49677429e+02</_>
    <_>
      -1.06451616e+01 7.06451645e+01 -9.67741966e+00 1.11290329e+02
      -2.90322590e+00 1.52903229e+02 4.83870983e+00 1.93548386e+02
      1.64516125e+01 2.34193558e+02 3.38709679e+01 2.71935486e+02
      5.90322609e+01 3.01935486e+02 9.38709717e+01 3.24193573e+02
      1.36451614e+02 3.31935486e+02 1.77096786e+02 3.25161285e+02
      2.10967743e+02 3.02903229e+02 2.36129044e+02 2.73870972e+02
      2.56451630e+02 2.36129044e+02 270. 1.95483871e+02 2.80645172e+02
      1.55806458e+02 2.88387115e+02 1.15161293e+02 2.90322601e+02
      7.35483856e+01 7.74193621e+00 2.51612911e+01 2.80645161e+01
      3.87096810e+00 5.90322609e+01 -1.93548405e+00 90. 3.87096810e+00
      1.18064522e+02 1.74193554e+01 1.64516129e+02 1.83870964e+01
      1.92580658e+02 5.80645180e+00 2.23548401e+02 9.67742026e-01
      2.53548401e+02 6.77419376e+00 2.73870972e+02 2.90322590e+01
      1.41290329e+02 6.09677429e+01 1.40322586e+02 9.09677429e+01
      1.40322586e+02 120. 1.39354843e+02 150. 1.04516129e+02
      1.76129044e+02 1.21935486e+02 1.81935486e+02 1.39354843e+02
      1.85806458e+02 1.57741943e+02 1.82903229e+02 1.75161301e+02
      1.77096786e+02 3.58064537e+01 6.67741928e+01 5.41935501e+01
      5.61290321e+01 7.64516144e+01 5.61290321e+01 9.58064575e+01
      7.25806503e+01 7.45161285e+01 7.74193573e+01 5.22580643e+01
      7.74193573e+01 1.86774200e+02 7.35483856e+01 2.06129044e+02
      5.90322609e+01 2.28387100e+02 5.90322609e+01 2.44838715e+02
      6.96774216e+01 2.28387100e+02 7.93548431e+01 2.07096786e+02
      7.83871002e+01 7.93548431e+01 2.38064529e+02 1.01612907e+02
      2.28387100e+02 1.22903229e+02 2.21612915e+02 1.36451614e+02
      2.26451614e+02 150. 2.21612915e+02 1.70322586e+02 2.30322586e+02
      1.91612915e+02 2.41935486e+02 1.71290329e+02 2.60322601e+02
      1.50967743e+02 2.67096771e+02 1.36451614e+02 2.68064514e+02
      1.21935486e+02 2.67096771e+02 1.00645164e+02 2.58387115e+02 90.
      2.39032272e+02 1.22903229e+02 240. 1.36451614e+02 2.41935486e+02
      150. 2.40967743e+02 1.80967743e+02 2.42903229e+02 150.
      2.44838715e+02 1.36451614e+02 2.46774200e+02 1.22903229e+02
      2.44838715e+02</_>
    <_>
      -1.06451616e+01 6.96774216e+01 -1.06451616e+01 1.10322586e+02
      -3.87096810e+00 1.51935486e+02 2.90322590e+00 1.91612915e+02
      1.35483875e+01 2.32258072e+02 3.09677429e+01 2.67096771e+02
      5.80645180e+01 2.97096771e+02 9.29032288e+01 3.18387115e+02
      1.33548386e+02 3.26129028e+02 1.76129044e+02 3.20322601e+02
      2.10967743e+02 2.99032257e+02 2.39032272e+02 2.71935486e+02
      2.59354858e+02 2.37096786e+02 2.72903229e+02 1.98387100e+02
      2.82580658e+02 1.57741943e+02 2.89354858e+02 1.18064522e+02
      2.91290344e+02 7.54838715e+01 6.77419376e+00 2.32258072e+01
      2.70967751e+01 2.90322590e+00 5.80645180e+01 -3.87096810e+00
      8.90322571e+01 1.93548405e+00 1.18064522e+02 1.54838715e+01
      1.67419357e+02 1.74193554e+01 1.96451614e+02 4.83870983e+00
      2.27419357e+02 9.67742026e-01 2.57419373e+02 7.74193621e+00
      2.77741943e+02 2.90322590e+01 1.42258072e+02 5.90322609e+01
      1.41290329e+02 8.90322571e+01 1.41290329e+02 1.18064522e+02
      1.40322586e+02 1.49032257e+02 1.03548393e+02 1.72258072e+02
      1.21935486e+02 1.78064514e+02 1.40322586e+02 1.82903229e+02
      1.59677429e+02 1.79032257e+02 1.78064514e+02 1.74193558e+02
      3.58064537e+01 6.48387146e+01 5.51612930e+01 5.41935501e+01
      7.74193573e+01 5.51612930e+01 9.58064575e+01 7.06451645e+01
      7.45161285e+01 7.54838715e+01 5.22580643e+01 7.45161285e+01
      1.88709686e+02 7.25806503e+01 2.08064529e+02 5.80645180e+01
      2.29354843e+02 5.80645180e+01 2.47741943e+02 6.87096786e+01
      2.30322586e+02 7.83871002e+01 2.08064529e+02 7.74193573e+01
      7.45161285e+01 2.30322586e+02 1.00645164e+02 2.24516129e+02
      1.22903229e+02 2.18709686e+02 1.37419357e+02 2.23548401e+02
      1.51935486e+02 2.19677429e+02 1.73225815e+02 2.26451614e+02
      1.98387100e+02 2.36129044e+02 1.73225815e+02 2.50645172e+02
      1.51935486e+02 2.56451630e+02 1.36451614e+02 2.57419373e+02
      1.20967743e+02 2.56451630e+02 9.77419357e+01 2.48709686e+02
      8.51612930e+01 2.32258072e+02 1.22903229e+02 2.36129044e+02
      1.37419357e+02 2.39032272e+02 1.51935486e+02 2.37096786e+02
      1.86774200e+02 2.37096786e+02 1.50967743e+02 2.36129044e+02
      1.36451614e+02 2.37096786e+02 1.21935486e+02 2.35161301e+02</_>
    <_>
      2.33870964e+01 1.02419357e+02 2.25806446e+01 1.35483871e+02
      2.74193554e+01 1.69354843e+02 3.38709679e+01 2.03225800e+02
      4.27419357e+01 2.38709671e+02 5.80645142e+01 2.70967743e+02
      7.90322571e+01 2.97580658e+02 1.06451614e+02 3.18548370e+02
      1.42741928e+02 3.24193542e+02 1.78225800e+02 3.18548370e+02
      2.07258057e+02 2.97580658e+02 2.29838715e+02 2.71774200e+02
      2.48387100e+02 2.40322586e+02 2.59677429e+02 2.07258057e+02
      2.67741943e+02 1.74193542e+02 2.74193542e+02 1.40322586e+02 275.
      1.05645157e+02 3.62903214e+01 6.93548355e+01 5.32258072e+01 50.
      8.06451569e+01 4.43548393e+01 1.08064514e+02 4.91935463e+01
      1.33870972e+02 6.04838715e+01 1.66129028e+02 6.12903214e+01
      1.91129028e+02 50. 2.17741928e+02 4.59677429e+01 2.42741928e+02
      5.24193535e+01 2.59677429e+02 7.09677429e+01 150. 9.67741928e+01
      1.49193542e+02 1.20967743e+02 1.48387100e+02 1.44354843e+02
      1.47580643e+02 1.70161285e+02 1.16129028e+02 1.91935486e+02
      1.32258057e+02 1.96774185e+02 1.48387100e+02 2.00806458e+02
      1.64516129e+02 1.97580643e+02 1.80645157e+02 1.93548386e+02
      6.20967751e+01 1.05645157e+02 7.74193573e+01 9.83870926e+01
      9.43548355e+01 9.83870926e+01 1.09677422e+02 1.07258064e+02
      9.35483856e+01 1.10483871e+02 7.58064499e+01 1.10483871e+02
      1.87903229e+02 1.07258064e+02 2.02419357e+02 9.91935501e+01
      2.19354843e+02 9.91935501e+01 2.33870972e+02 1.06451614e+02
      2.20161285e+02 1.11290321e+02 2.03225800e+02 1.11290321e+02
      9.27419357e+01 2.41935486e+02 1.14516129e+02 2.35483871e+02
      1.33064514e+02 2.29838715e+02 1.45967743e+02 2.34677414e+02
      1.58870972e+02 2.30645157e+02 175. 2.37903229e+02 1.93548386e+02
      2.46774185e+02 175. 2.61290314e+02 1.58064514e+02 2.66935486e+02
      1.43548386e+02 2.67741943e+02 1.29838715e+02 2.65322571e+02
      1.12096771e+02 2.58870972e+02 1.02419357e+02 2.43548386e+02
      1.33064514e+02 2.46774185e+02 1.45967743e+02 2.49193542e+02
      1.58870972e+02 2.47580643e+02 1.84677414e+02 2.47580643e+02
      1.58064514e+02 2.45967743e+02 1.44354843e+02 2.47580643e+02
      1.31451614e+02 2.45967743e+02</_>
    <_>
      1.61290300e+00 7.41935501e+01 0. 1.09677422e+02 3.22580600e+00
      1.46774185e+02 8.87096786e+00 1.83870972e+02 1.93548393e+01
      2.21774185e+02 3.70967751e+01 2.56451599e+02 5.88709679e+01
      2.87096771e+02 8.62903214e+01 3.12096771e+02 1.23387093e+02
      3.21774200e+02 1.62096771e+02 3.16129028e+02 1.94354843e+02
      2.93548370e+02 2.20161285e+02 2.66129028e+02 2.41935486e+02
      2.33064514e+02 2.56451599e+02 1.97580643e+02 2.66129028e+02
      1.59677414e+02 2.72580658e+02 1.21774193e+02 2.73387085e+02
      8.30645142e+01 1.61290321e+01 3.54838715e+01 3.46774178e+01
      1.69354839e+01 6.29032249e+01 1.20967741e+01 9.11290283e+01
      1.77419357e+01 1.16935486e+02 2.98387089e+01 1.58064514e+02
      3.38709679e+01 1.83064514e+02 2.25806446e+01 2.10483871e+02
      1.93548393e+01 2.37096771e+02 2.66129036e+01 2.55645157e+02
      4.59677429e+01 1.34677414e+02 6.93548355e+01 1.33870972e+02
      9.91935501e+01 1.32258057e+02 1.27419357e+02 1.30645157e+02
      1.55645157e+02 9.43548355e+01 1.70161285e+02 1.12096771e+02
      1.77419357e+02 1.30645157e+02 1.83870972e+02 1.49193542e+02
      1.79032257e+02 1.67741928e+02 1.73387100e+02 3.95161285e+01
      7.17741928e+01 5.64516106e+01 6.20967751e+01 7.58064499e+01
      6.29032249e+01 9.27419357e+01 7.74193573e+01 7.33870926e+01
      7.90322571e+01 5.40322571e+01 7.82258072e+01 1.77419357e+02
      8.06451569e+01 1.94354843e+02 6.77419357e+01 2.13709671e+02
      6.77419357e+01 2.29838715e+02 7.82258072e+01 2.14516129e+02
      8.38709641e+01 1.94354843e+02 8.38709641e+01 6.69354858e+01
      2.17741928e+02 8.79032288e+01 2.08064514e+02 1.10483871e+02
      2.02419357e+02 1.27419357e+02 2.08064514e+02 1.44354843e+02
      2.04032257e+02 1.66129028e+02 2.12096771e+02 1.87903229e+02 225.
      1.66129028e+02 2.52419357e+02 1.43548386e+02 2.64516113e+02 125.
      2.65322571e+02 1.06451614e+02 2.62096771e+02 8.54838715e+01
      2.47580643e+02 7.58064499e+01 2.18548386e+02 1.09677422e+02
      2.19354843e+02 1.27419357e+02 2.22580643e+02 1.43548386e+02
      2.20967743e+02 1.78225800e+02 2.25806442e+02 1.43548386e+02
      2.41129028e+02 1.26612900e+02 2.43548386e+02 1.08870964e+02
      2.39516129e+02</_>
    <_>
      -4.83870983e+00 6.58064499e+01 -5.80645180e+00 1.11290329e+02 0.
      1.56774200e+02 7.74193621e+00 2.02258072e+02 1.83870964e+01
      2.47741943e+02 3.87096786e+01 2.89354858e+02 6.67741928e+01
      3.23225830e+02 1.02580650e+02 3.50322601e+02 1.47096771e+02
      3.59032257e+02 1.92580658e+02 3.51290344e+02 2.31290329e+02
      3.26129028e+02 2.62258087e+02 2.94193542e+02 2.86451630e+02
      2.54516144e+02 3.02903229e+02 2.11935486e+02 3.12580658e+02
      1.67419357e+02 3.21290344e+02 1.22903229e+02 3.23225830e+02
      7.83871002e+01 1.06451616e+01 2.51612911e+01 3.29032249e+01 0.
      6.67741928e+01 -6.77419376e+00 1.00645164e+02 0. 1.31612900e+02
      1.54838715e+01 1.85806458e+02 1.74193554e+01 2.17741943e+02
      4.83870983e+00 2.50645172e+02 1.93548405e+00 2.82580658e+02
      1.06451616e+01 3.03870972e+02 3.48387108e+01 1.57741943e+02
      6.29032288e+01 1.56774200e+02 9.77419357e+01 1.55806458e+02
      1.31612900e+02 1.53870972e+02 1.66451614e+02 1.09354843e+02
      1.82903229e+02 1.30645172e+02 1.90645172e+02 1.51935486e+02
      1.98387100e+02 1.74193558e+02 1.92580658e+02 1.95483871e+02
      1.85806458e+02 4.16129036e+01 6.48387146e+01 6.19354858e+01
      5.22580643e+01 8.70967789e+01 5.41935501e+01 1.07419357e+02
      7.35483856e+01 8.41935501e+01 7.54838715e+01 60. 7.35483856e+01
      2.06129044e+02 7.64516144e+01 2.27419357e+02 5.90322609e+01
      2.50645172e+02 5.90322609e+01 270. 7.25806503e+01 2.52580658e+02
      7.93548431e+01 2.28387100e+02 8.03225861e+01 7.45161285e+01
      2.39032272e+02 1.01612907e+02 2.26451614e+02 1.29677429e+02
      2.20645172e+02 1.49032257e+02 2.27419357e+02 1.69354843e+02
      2.22580658e+02 1.96451614e+02 2.32258072e+02 2.20645172e+02
      2.47741943e+02 1.95483871e+02 2.78709686e+02 1.67419357e+02
      2.92258087e+02 1.45161301e+02 2.94193542e+02 1.23870972e+02
      2.90322601e+02 9.77419357e+01 2.73870972e+02 8.61290359e+01
      2.40967743e+02 1.28709686e+02 2.40967743e+02 1.48064514e+02
      2.44838715e+02 1.68387100e+02 2.42903229e+02 2.09032257e+02
      2.48709686e+02 1.68387100e+02 2.66129028e+02 1.47096771e+02
      2.68064514e+02 1.26774200e+02 2.64193542e+02</_>
    <_>
      5.64516115e+00 6.93548355e+01 4.03225803e+00 1.06451614e+02
      7.25806379e+00 1.43548386e+02 1.20967741e+01 1.81451614e+02
      2.17741928e+01 2.19354843e+02 3.87096786e+01 2.53225800e+02
      6.12903214e+01 2.84677429e+02 8.95161285e+01 3.11290314e+02
      1.28225800e+02 3.21774200e+02 1.67741928e+02 3.16129028e+02
      1.99193542e+02 2.91935486e+02 225. 2.63709686e+02 2.45967743e+02
      2.29838715e+02 2.60483856e+02 1.93548386e+02 2.68548370e+02
      1.55645157e+02 275. 1.17741936e+02 2.76612915e+02 7.98387070e+01
      1.93548393e+01 3.87096786e+01 3.79032249e+01 1.85483875e+01
      6.69354858e+01 1.29032259e+01 9.51612930e+01 1.93548393e+01
      1.21774193e+02 3.22580643e+01 1.63709671e+02 3.54838715e+01
      1.89516129e+02 2.41935482e+01 2.16935486e+02 2.01612892e+01
      2.43548386e+02 2.90322571e+01 2.60483856e+02 5.08064499e+01
      1.41129028e+02 7.01612930e+01 1.39516129e+02 9.91935501e+01
      1.38709671e+02 1.27419357e+02 1.37096771e+02 1.56451614e+02 100.
      1.68548386e+02 1.17741936e+02 1.76612900e+02 1.37096771e+02
      1.83064514e+02 1.55645157e+02 1.78225800e+02 1.73387100e+02
      1.72580643e+02 4.67741928e+01 7.17741928e+01 6.29032249e+01
      6.20967751e+01 8.30645142e+01 6.37096786e+01 9.91935501e+01
      7.82258072e+01 8.06451569e+01 7.98387070e+01 6.12903214e+01
      7.82258072e+01 1.81451614e+02 8.14516144e+01 1.97580643e+02
      6.93548355e+01 2.16935486e+02 6.93548355e+01 2.32258057e+02
      7.98387070e+01 2.17741928e+02 8.54838715e+01 1.98387100e+02
      8.46774216e+01 7.09677429e+01 2.12903229e+02 9.43548355e+01
      2.05645157e+02 1.16935486e+02 2.02419357e+02 1.33870972e+02
      2.07258057e+02 1.50806458e+02 2.04032257e+02 1.72580643e+02
      2.10483871e+02 1.94354843e+02 2.20967743e+02 1.72580643e+02
      2.48387100e+02 1.49193542e+02 2.59677429e+02 1.30645157e+02
      2.61290314e+02 1.12903221e+02 2.57258057e+02 9.11290283e+01
      2.43548386e+02 7.90322571e+01 2.14516129e+02 1.16129028e+02
      2.16935486e+02 1.33064514e+02 2.20161285e+02 150. 2.19354843e+02
      1.84677414e+02 2.21774185e+02 150. 2.38709671e+02 1.32258057e+02
      2.41129028e+02 1.15322578e+02 2.37096771e+02</_>
    <_>
      8.06451607e+00 7.09677429e+01 6.45161295e+00 1.08870964e+02
      9.67741966e+00 1.46774185e+02 1.45161285e+01 1.84677414e+02
      2.41935482e+01 2.21774185e+02 4.19354820e+01 2.55645157e+02
      6.37096786e+01 2.86290314e+02 9.19354858e+01 3.12903229e+02
      1.29838715e+02 3.21774200e+02 1.69354843e+02 3.16129028e+02
      2.00806458e+02 2.91129028e+02 2.25806442e+02 2.63709686e+02
      2.47580643e+02 2.29838715e+02 2.61290314e+02 1.94354843e+02
      2.69354828e+02 1.56451614e+02 2.76612915e+02 1.18548386e+02
      2.78225800e+02 7.98387070e+01 2.17741928e+01 3.87096786e+01
      4.03225784e+01 1.85483875e+01 6.93548355e+01 1.29032259e+01
      9.75806427e+01 1.85483875e+01 1.24193550e+02 3.22580643e+01
      1.64516129e+02 3.54838715e+01 1.90322586e+02 2.41935482e+01
      2.18548386e+02 2.09677410e+01 2.45161285e+02 2.90322571e+01
      2.62096771e+02 50. 1.42741928e+02 7.09677429e+01 1.41129028e+02
      100. 1.40322586e+02 1.28225800e+02 1.38709671e+02 1.57258057e+02
      1.01612900e+02 1.69354843e+02 1.19354836e+02 1.77419357e+02
      1.37903229e+02 1.83870972e+02 1.56451614e+02 1.79032257e+02 175.
      1.72580643e+02 4.83870964e+01 7.17741928e+01 6.53225784e+01
      6.20967751e+01 8.38709641e+01 6.37096786e+01 100. 7.90322571e+01
      8.22580643e+01 7.98387070e+01 6.29032249e+01 7.82258072e+01
      1.83064514e+02 8.22580643e+01 1.99193542e+02 6.93548355e+01
      2.17741928e+02 6.93548355e+01 2.33870972e+02 7.90322571e+01
      2.18548386e+02 8.54838715e+01 200. 8.46774216e+01 7.25806427e+01
      2.13709671e+02 9.43548355e+01 2.05645157e+02 1.17741936e+02
      2.01612900e+02 1.35483871e+02 2.07258057e+02 1.52419357e+02
      2.03225800e+02 175. 2.09677414e+02 1.95967743e+02 2.21774185e+02
      175. 2.49193542e+02 1.50806458e+02 2.62096771e+02 1.32258057e+02
      2.63709686e+02 1.13709679e+02 2.59677429e+02 9.11290283e+01
      2.44354843e+02 8.14516144e+01 2.15322586e+02 1.16935486e+02
      2.16935486e+02 1.34677414e+02 2.20161285e+02 1.52419357e+02
      2.19354843e+02 1.87096771e+02 2.22580643e+02 1.51612900e+02
      2.39516129e+02 1.33870972e+02 2.41935486e+02 1.15322578e+02
      2.37903229e+02</_>
    <_>
      6.45161295e+00 7.25806427e+01 4.83870983e+00 1.08870964e+02
      8.06451607e+00 1.46774185e+02 1.29032259e+01 1.84677414e+02
      2.17741928e+01 2.22580643e+02 3.79032249e+01 2.57258057e+02
      5.96774178e+01 2.87903229e+02 8.87096786e+01 3.12096771e+02
      1.25806450e+02 3.20967743e+02 1.64516129e+02 3.16129028e+02
      1.96774185e+02 2.93548370e+02 2.21774185e+02 2.65322571e+02
      2.43548386e+02 2.32258057e+02 2.57258057e+02 1.95967743e+02
      2.66935486e+02 1.58870972e+02 275. 1.20161293e+02 2.76612915e+02
      8.06451569e+01 2.09677410e+01 3.79032249e+01 4.03225784e+01
      1.93548393e+01 6.85483856e+01 1.45161285e+01 9.67741928e+01
      2.17741928e+01 1.22580643e+02 3.46774178e+01 1.63709671e+02
      3.79032249e+01 1.88709671e+02 2.58064518e+01 2.16129028e+02
      2.25806446e+01 2.41935486e+02 2.98387089e+01 2.59677429e+02
      4.91935463e+01 1.40322586e+02 7.25806427e+01 1.38709671e+02
      1.03225807e+02 1.37096771e+02 1.32258057e+02 1.35483871e+02
      1.62096771e+02 100. 1.73387100e+02 1.16935486e+02 1.80645157e+02
      1.35483871e+02 1.87096771e+02 1.54032257e+02 1.82258057e+02
      1.71774185e+02 1.76612900e+02 4.51612892e+01 7.41935501e+01
      6.20967751e+01 6.45161285e+01 8.14516144e+01 6.61290283e+01
      9.83870926e+01 8.06451569e+01 7.90322571e+01 8.22580643e+01
      5.96774178e+01 8.14516144e+01 1.81451614e+02 8.46774216e+01
      1.97580643e+02 7.17741928e+01 2.16935486e+02 7.17741928e+01
      2.33064514e+02 8.14516144e+01 2.16935486e+02 8.79032288e+01
      1.98387100e+02 8.70967712e+01 7.01612930e+01 2.16935486e+02
      9.19354858e+01 2.08870972e+02 1.15322578e+02 2.05645157e+02
      1.31451614e+02 2.10483871e+02 1.48387100e+02 2.07258057e+02
      1.70161285e+02 2.13709671e+02 1.91129028e+02 2.26612900e+02
      1.69354843e+02 2.52419357e+02 1.45967743e+02 2.64516113e+02
      1.27419357e+02 2.66129028e+02 1.09677422e+02 2.62096771e+02
      8.79032288e+01 2.46774185e+02 7.90322571e+01 2.19354843e+02
      1.14516129e+02 2.21774185e+02 1.31451614e+02 2.25806442e+02
      1.47580643e+02 2.24193542e+02 1.81451614e+02 2.27419357e+02
      1.46774185e+02 2.41935486e+02 1.29032257e+02 2.44354843e+02
      1.12096771e+02 2.40322586e+02</_>
    <_>
      -9.67741966e+00 6.96774216e+01 -9.67741966e+00 1.14193550e+02
      -3.87096810e+00 1.58709686e+02 3.87096810e+00 2.03225815e+02
      1.45161285e+01 2.47741943e+02 3.58064537e+01 2.86451630e+02
      6.58064499e+01 3.17419373e+02 1.03548393e+02 3.39677429e+02
      1.47096771e+02 3.47419373e+02 1.90645172e+02 3.41612915e+02
      2.29354843e+02 3.19354858e+02 2.60322601e+02 2.90322601e+02
      2.84516144e+02 2.52580658e+02 2.99032257e+02 210. 3.09677429e+02
      1.66451614e+02 3.18387115e+02 1.21935486e+02 3.20322601e+02
      7.64516144e+01 3.87096810e+00 30. 2.70967751e+01 5.80645180e+00
      6.09677429e+01 0. 9.58064575e+01 5.80645180e+00 1.25806458e+02
      2.22580643e+01 180. 2.32258072e+01 2.11935486e+02 1.06451616e+01
      2.45806458e+02 7.74193621e+00 2.79677429e+02 1.64516125e+01
      3.00967743e+02 4.16129036e+01 1.52903229e+02 6.87096786e+01
      1.50967743e+02 1.02580650e+02 150. 1.36451614e+02 1.49032257e+02
      1.70322586e+02 1.07419357e+02 1.88709686e+02 1.26774200e+02
      1.96451614e+02 1.48064514e+02 2.02258072e+02 1.68387100e+02
      1.97419357e+02 1.88709686e+02 1.92580658e+02 3.58064537e+01
      6.87096786e+01 5.70967751e+01 5.70967751e+01 8.12903214e+01
      5.90322609e+01 1.02580650e+02 7.83871002e+01 7.83871002e+01
      8.03225861e+01 5.41935501e+01 7.93548431e+01 2.01290329e+02
      8.12903214e+01 2.22580658e+02 6.38709679e+01 2.46774200e+02
      6.38709679e+01 2.67096771e+02 7.64516144e+01 2.48709686e+02
      8.51612930e+01 2.24516129e+02 8.51612930e+01 7.64516144e+01
      2.46774200e+02 1.02580650e+02 2.36129044e+02 1.28709686e+02
      2.29354843e+02 1.46129044e+02 2.35161301e+02 1.64516129e+02
      2.30322586e+02 1.88709686e+02 240. 2.11935486e+02 2.52580658e+02
      1.88709686e+02 2.75806458e+02 1.63548386e+02 2.85483887e+02
      1.43225815e+02 2.87419373e+02 1.24838715e+02 2.83548401e+02
      9.96774216e+01 2.71935486e+02 8.90322571e+01 2.48709686e+02
      1.27741936e+02 2.49677429e+02 1.45161301e+02 2.52580658e+02
      1.64516129e+02 2.51612915e+02 2.00322586e+02 2.53548401e+02
      1.63548386e+02 2.57419373e+02 1.44193558e+02 2.59354858e+02
      1.26774200e+02 2.56451630e+02</_>
    <_>
      1.64516125e+01 6.96774216e+01 1.74193554e+01 1.10322586e+02
      2.41935482e+01 1.52903229e+02 3.29032249e+01 1.92580658e+02
      4.45161285e+01 2.34193558e+02 6.09677429e+01 2.73870972e+02
      8.61290359e+01 3.05806458e+02 1.18064522e+02 3.29032257e+02
      1.57741943e+02 3.36774200e+02 1.97419357e+02 3.29032257e+02
      2.26451614e+02 3.03870972e+02 2.48709686e+02 2.71935486e+02
      2.66129028e+02 2.33225815e+02 2.77741943e+02 1.93548386e+02
      2.87419373e+02 1.53870972e+02 2.97096771e+02 1.14193550e+02 300.
      7.45161285e+01 3.48387108e+01 2.61290321e+01 5.51612930e+01
      5.80645180e+00 8.32258072e+01 -9.67742026e-01 1.13225807e+02
      4.83870983e+00 1.40322586e+02 1.64516125e+01 1.83870972e+02
      1.83870964e+01 210. 8.70967770e+00 2.38064529e+02 6.77419376e+00
      2.64193542e+02 1.54838715e+01 2.81612915e+02 3.67741928e+01
      1.62580643e+02 5.80645180e+01 1.61612915e+02 8.51612930e+01
      1.61612915e+02 1.11290329e+02 1.62580643e+02 1.39354843e+02
      1.28709686e+02 1.63548386e+02 1.44193558e+02 1.69354843e+02
      1.61612915e+02 1.74193558e+02 1.78064514e+02 1.69354843e+02
      1.94516129e+02 1.63548386e+02 6.29032288e+01 6.48387146e+01
      7.93548431e+01 5.32258072e+01 9.96774216e+01 5.41935501e+01
      1.16129036e+02 6.96774216e+01 9.77419357e+01 7.25806503e+01
      7.74193573e+01 7.16129074e+01 2.05161301e+02 7.16129074e+01
      2.20645172e+02 5.80645180e+01 240. 5.80645180e+01 2.54516144e+02
      6.96774216e+01 2.40967743e+02 7.54838715e+01 2.22580658e+02
      7.54838715e+01 1.09354843e+02 2.41935486e+02 1.26774200e+02
      2.16774200e+02 1.48064514e+02 2.06129044e+02 1.62580643e+02
      2.10967743e+02 1.79032257e+02 2.06129044e+02 1.96451614e+02
      2.16774200e+02 2.08064529e+02 2.41935486e+02 1.97419357e+02 270.
      1.79032257e+02 2.82580658e+02 1.61612915e+02 2.85483887e+02
      1.45161301e+02 2.83548401e+02 1.24838715e+02 2.70967743e+02
      1.19032265e+02 2.40967743e+02 1.48064514e+02 2.24516129e+02
      1.62580643e+02 2.25483871e+02 1.78064514e+02 2.24516129e+02
      1.99354843e+02 2.40967743e+02 1.78064514e+02 2.57419373e+02
      1.61612915e+02 2.60322601e+02 1.46129044e+02 2.58387115e+02</_>
    <_>
      1.74193554e+01 7.06451645e+01 1.83870964e+01 1.12258064e+02
      2.51612911e+01 1.54838715e+02 3.48387108e+01 1.95483871e+02
      4.64516144e+01 2.38064529e+02 6.38709679e+01 2.77741943e+02
      8.80645218e+01 3.10645172e+02 1.20967743e+02 3.33870972e+02
      1.60645172e+02 3.40645172e+02 1.99354843e+02 3.31935486e+02
      2.28387100e+02 3.05806458e+02 2.50645172e+02 2.73870972e+02
      2.68064514e+02 2.35161301e+02 2.80645172e+02 1.95483871e+02
      2.90322601e+02 1.56774200e+02 2.98064514e+02 1.17096779e+02
      3.00967743e+02 7.64516144e+01 3.58064537e+01 2.80645161e+01
      5.61290321e+01 6.77419376e+00 8.41935501e+01 0. 1.14193550e+02
      6.77419376e+00 1.41290329e+02 1.93548393e+01 1.84838715e+02
      1.93548393e+01 2.11935486e+02 8.70967770e+00 240. 5.80645180e+00
      2.67096771e+02 1.45161285e+01 2.83548401e+02 3.58064537e+01
      1.63548386e+02 60. 1.63548386e+02 8.70967789e+01 1.63548386e+02
      1.12258064e+02 1.63548386e+02 1.40322586e+02 1.28709686e+02
      1.63548386e+02 1.45161301e+02 1.70322586e+02 1.62580643e+02
      1.74193558e+02 180. 1.69354843e+02 1.96451614e+02 1.63548386e+02
      6.38709679e+01 6.58064499e+01 8.03225861e+01 5.41935501e+01
      1.00645164e+02 5.51612930e+01 1.18064522e+02 7.06451645e+01
      9.87096786e+01 7.35483856e+01 7.83871002e+01 7.35483856e+01
      2.06129044e+02 7.16129074e+01 2.21612915e+02 5.80645180e+01
      2.40967743e+02 5.90322609e+01 2.56451630e+02 7.06451645e+01
      2.41935486e+02 7.64516144e+01 2.23548401e+02 7.64516144e+01
      1.09354843e+02 2.40967743e+02 1.26774200e+02 2.16774200e+02
      1.49032257e+02 2.05161301e+02 1.62580643e+02 2.09032257e+02
      1.79032257e+02 2.04193558e+02 1.97419357e+02 2.14838715e+02 210.
      240. 1.98387100e+02 2.69032257e+02 180. 2.82580658e+02
      1.61612915e+02 2.85483887e+02 1.46129044e+02 2.84516144e+02
      1.24838715e+02 2.71935486e+02 1.18064522e+02 240. 1.49032257e+02
      2.22580658e+02 1.62580643e+02 2.23548401e+02 1.78064514e+02
      2.21612915e+02 2.00322586e+02 2.39032272e+02 1.79032257e+02
      2.59354858e+02 1.62580643e+02 2.63225800e+02 1.48064514e+02
      2.61290344e+02</_>
    <_>
      2.22580643e+01 7.54838715e+01 2.12903233e+01 1.16129036e+02
      2.80645161e+01 1.57741943e+02 3.67741928e+01 1.99354843e+02
      4.83870964e+01 2.40967743e+02 6.58064499e+01 2.79677429e+02 90.
      3.11612915e+02 1.22903229e+02 3.33870972e+02 1.63548386e+02
      3.39677429e+02 2.02258072e+02 3.31935486e+02 2.31290329e+02
      3.06774200e+02 2.53548401e+02 2.74838715e+02 2.70967743e+02
      2.37096786e+02 2.82580658e+02 1.98387100e+02 2.92258087e+02
      1.59677429e+02 300. 120. 3.01935486e+02 8.03225861e+01
      3.96774216e+01 2.90322590e+01 6.09677429e+01 8.70967770e+00
      8.90322571e+01 2.90322590e+00 1.19032265e+02 8.70967770e+00
      1.45161301e+02 2.12903233e+01 1.88709686e+02 2.22580643e+01
      2.15806458e+02 1.25806456e+01 2.42903229e+02 1.06451616e+01
      2.69032257e+02 1.83870964e+01 2.86451630e+02 3.87096786e+01
      1.67419357e+02 6.19354858e+01 1.67419357e+02 8.90322571e+01
      1.67419357e+02 1.15161293e+02 1.67419357e+02 1.42258072e+02
      1.33548386e+02 1.66451614e+02 1.49032257e+02 1.72258072e+02
      1.66451614e+02 1.77096786e+02 1.83870972e+02 1.72258072e+02
      2.00322586e+02 1.66451614e+02 6.77419357e+01 6.67741928e+01
      8.41935501e+01 5.61290321e+01 1.04516129e+02 5.70967751e+01
      1.20967743e+02 7.25806503e+01 1.02580650e+02 7.54838715e+01
      8.22580643e+01 7.45161285e+01 2.09032257e+02 7.45161285e+01
      2.25483871e+02 6.09677429e+01 2.44838715e+02 6.09677429e+01
      2.59354858e+02 7.35483856e+01 2.45806458e+02 7.93548431e+01
      2.27419357e+02 7.83871002e+01 1.14193550e+02 2.42903229e+02
      1.32580643e+02 2.18709686e+02 1.54838715e+02 2.07096786e+02
      1.67419357e+02 2.10967743e+02 1.81935486e+02 2.07096786e+02
      2.00322586e+02 2.18709686e+02 2.11935486e+02 2.43870972e+02
      2.00322586e+02 2.71935486e+02 1.82903229e+02 2.85483887e+02
      1.65483871e+02 2.87419373e+02 1.50967743e+02 2.86451630e+02
      1.29677429e+02 2.73870972e+02 1.22903229e+02 2.41935486e+02
      1.53870972e+02 2.24516129e+02 1.67419357e+02 2.25483871e+02
      1.81935486e+02 2.24516129e+02 2.03225815e+02 2.42903229e+02
      1.81935486e+02 2.61290344e+02 1.65483871e+02 2.64193542e+02
      1.51935486e+02 2.62258087e+02</_>
    <_>
      -1.25806456e+01 7.54838715e+01 -1.06451616e+01 1.16129036e+02
      -3.87096810e+00 1.56774200e+02 4.83870983e+00 1.98387100e+02
      1.64516125e+01 2.39032272e+02 3.29032249e+01 2.77741943e+02
      5.90322609e+01 3.07741943e+02 9.19354858e+01 330. 1.30645172e+02
      3.36774200e+02 1.68387100e+02 3.29032257e+02 1.98387100e+02
      3.05806458e+02 2.19677429e+02 2.75806458e+02 2.37096786e+02
      2.38064529e+02 2.50645172e+02 1.98387100e+02 2.60322601e+02
      1.59677429e+02 2.69032257e+02 1.19032265e+02 2.70967743e+02
      7.93548431e+01 9.67741966e+00 2.41935482e+01 30. 4.83870983e+00
      5.70967751e+01 -9.67742026e-01 8.61290359e+01 4.83870983e+00
      1.12258064e+02 1.64516125e+01 1.56774200e+02 1.83870964e+01
      1.81935486e+02 8.70967770e+00 210. 6.77419376e+00 2.36129044e+02
      1.45161285e+01 2.53548401e+02 3.58064537e+01 1.34516129e+02
      5.80645180e+01 1.34516129e+02 8.51612930e+01 1.34516129e+02
      1.10322586e+02 1.34516129e+02 1.38387100e+02 1.00645164e+02
      1.61612915e+02 1.16129036e+02 1.67419357e+02 1.34516129e+02
      1.72258072e+02 1.50967743e+02 1.68387100e+02 1.67419357e+02
      1.62580643e+02 3.58064537e+01 6.38709679e+01 5.22580643e+01
      5.32258072e+01 7.25806503e+01 5.41935501e+01 90. 6.96774216e+01
      6.96774216e+01 7.25806503e+01 5.03225822e+01 7.16129074e+01
      1.77096786e+02 7.16129074e+01 1.93548386e+02 5.90322609e+01
      2.12903229e+02 5.90322609e+01 2.28387100e+02 7.06451645e+01
      2.13870972e+02 7.74193573e+01 1.94516129e+02 7.64516144e+01
      8.12903214e+01 2.39032272e+02 9.77419357e+01 2.14838715e+02 120.
      2.02258072e+02 1.34516129e+02 2.06129044e+02 1.48064514e+02
      2.02258072e+02 1.66451614e+02 2.12903229e+02 1.79032257e+02
      2.39032272e+02 1.67419357e+02 2.69032257e+02 1.49032257e+02
      2.82580658e+02 1.33548386e+02 2.84516144e+02 1.17096779e+02
      2.82580658e+02 9.58064575e+01 270. 90. 2.38064529e+02
      1.19032265e+02 2.20645172e+02 1.34516129e+02 2.21612915e+02
      1.47096771e+02 2.20645172e+02 1.70322586e+02 2.38064529e+02
      1.48064514e+02 2.58387115e+02 1.33548386e+02 2.61290344e+02
      1.19032265e+02 2.59354858e+02</_>
    <_>
      -1.16129036e+01 7.45161285e+01 -1.06451616e+01 1.14193550e+02
      -3.87096810e+00 1.54838715e+02 4.83870983e+00 1.95483871e+02
      1.64516125e+01 2.36129044e+02 3.48387108e+01 2.73870972e+02 60.
      3.02903229e+02 9.29032288e+01 3.24193573e+02 1.31612900e+02
      3.30967743e+02 1.67419357e+02 3.23225830e+02 1.97419357e+02
      3.00967743e+02 2.20645172e+02 2.70967743e+02 2.38064529e+02
      2.34193558e+02 2.50645172e+02 1.96451614e+02 2.59354858e+02
      1.57741943e+02 2.68064514e+02 1.19032265e+02 2.70967743e+02
      7.83871002e+01 1.16129036e+01 2.51612911e+01 3.19354839e+01
      5.80645180e+00 60. -9.67742026e-01 8.90322571e+01 4.83870983e+00
      1.15161293e+02 1.64516125e+01 1.56774200e+02 1.93548393e+01
      1.82903229e+02 8.70967770e+00 2.11935486e+02 6.77419376e+00
      2.38064529e+02 1.54838715e+01 2.55483871e+02 3.67741928e+01
      1.35483871e+02 5.80645180e+01 1.35483871e+02 8.41935501e+01
      1.34516129e+02 1.08387100e+02 1.34516129e+02 1.34516129e+02
      1.02580650e+02 1.60645172e+02 1.18064522e+02 1.66451614e+02
      1.34516129e+02 1.70322586e+02 1.51935486e+02 1.66451614e+02
      1.68387100e+02 1.60645172e+02 3.67741928e+01 6.38709679e+01
      5.32258072e+01 5.22580643e+01 7.45161285e+01 5.32258072e+01
      9.09677429e+01 6.96774216e+01 7.06451645e+01 7.25806503e+01
      5.12903252e+01 7.16129074e+01 1.78064514e+02 7.16129074e+01
      1.93548386e+02 5.70967751e+01 2.13870972e+02 5.70967751e+01
      2.29354843e+02 6.96774216e+01 2.14838715e+02 7.54838715e+01
      1.95483871e+02 7.54838715e+01 8.03225861e+01 2.38064529e+02
      9.67741928e+01 2.11935486e+02 1.19032265e+02 1.99354843e+02
      1.34516129e+02 2.03225815e+02 1.49032257e+02 1.99354843e+02
      1.67419357e+02 2.10967743e+02 1.80967743e+02 2.38064529e+02
      1.68387100e+02 2.68064514e+02 1.49032257e+02 2.82580658e+02
      1.33548386e+02 2.84516144e+02 1.17096779e+02 2.82580658e+02
      9.48387146e+01 2.69032257e+02 8.90322571e+01 2.37096786e+02
      1.19032265e+02 2.17741943e+02 1.34516129e+02 2.18709686e+02
      1.48064514e+02 2.17741943e+02 1.72258072e+02 2.37096786e+02
      1.49032257e+02 2.59354858e+02 1.33548386e+02 2.62258087e+02
      1.18064522e+02 2.60322601e+02</_>
    <_>
      -9.67741966e+00 7.83871002e+01 -8.70967770e+00 1.18064522e+02
      -2.90322590e+00 1.58709686e+02 4.83870983e+00 1.98387100e+02
      1.74193554e+01 240. 3.48387108e+01 2.76774200e+02 6.19354858e+01
      3.05806458e+02 9.29032288e+01 3.27096771e+02 1.29677429e+02
      3.34838715e+02 1.65483871e+02 3.27096771e+02 1.94516129e+02
      3.04838715e+02 2.16774200e+02 2.75806458e+02 2.35161301e+02 240.
      2.48709686e+02 2.01290329e+02 2.58387115e+02 1.62580643e+02
      2.67096771e+02 1.22903229e+02 2.70967743e+02 8.22580643e+01
      1.25806456e+01 2.61290321e+01 3.29032249e+01 6.77419376e+00
      6.09677429e+01 9.67742026e-01 90. 4.83870983e+00 1.16129036e+02
      1.64516125e+01 1.57741943e+02 1.83870964e+01 1.83870972e+02
      8.70967770e+00 2.11935486e+02 7.74193621e+00 2.37096786e+02
      1.74193554e+01 2.54516144e+02 3.87096786e+01 1.36451614e+02 60.
      1.36451614e+02 8.51612930e+01 1.36451614e+02 1.09354843e+02
      1.35483871e+02 1.35483871e+02 1.02580650e+02 1.60645172e+02
      1.18064522e+02 1.66451614e+02 1.35483871e+02 1.70322586e+02
      1.52903229e+02 1.66451614e+02 1.68387100e+02 1.61612915e+02
      4.06451607e+01 7.06451645e+01 5.70967751e+01 6.67741928e+01
      7.64516144e+01 6.58064499e+01 9.29032288e+01 7.25806503e+01
      7.45161285e+01 7.74193573e+01 5.61290321e+01 7.64516144e+01
      1.76129044e+02 7.54838715e+01 1.94516129e+02 7.06451645e+01
      2.11935486e+02 7.25806503e+01 2.27419357e+02 7.83871002e+01
      2.10967743e+02 8.32258072e+01 1.93548386e+02 8.22580643e+01
      8.03225861e+01 2.38064529e+02 9.67741928e+01 2.11935486e+02 120.
      1.99354843e+02 1.35483871e+02 2.03225815e+02 1.49032257e+02
      1.99354843e+02 1.68387100e+02 2.10967743e+02 180. 2.39032272e+02
      1.68387100e+02 2.70967743e+02 150. 2.85483887e+02 1.33548386e+02
      2.87419373e+02 1.17096779e+02 2.85483887e+02 9.48387146e+01
      2.70967743e+02 90. 2.36129044e+02 120. 2.16774200e+02
      1.34516129e+02 2.17741943e+02 1.49032257e+02 2.16774200e+02
      1.70322586e+02 2.38064529e+02 1.49032257e+02 2.62258087e+02
      1.33548386e+02 2.64193542e+02 1.18064522e+02 2.63225800e+02</_></uncompressed_support_vectors>
  <decision_functions>
    <_>
      <sv_count>1</sv_count>
      <rho>-6.5820329155218911e+00</rho>
      <alpha>
        1.</alpha>
      <index>
        0</index></_>
    <_>
      <sv_count>1</sv_count>
      <rho>-2.6178823096822592e+00</rho>
      <alpha>
        1.</alpha>
      <index>
        1</index></_>
    <_>
      <sv_count>1</sv_count>
      <rho>1.5362831880118233e+00</rho>
      <alpha>
        1.</alpha>
      <index>
        2</index></_></decision_functions></opencv_ml_svm>
</opencv_storage>
